{"Layer_0": {"weights": [[0.0, 0.0, 0.0], [0.0, 0.0, 0.0], [0.0, 0.0, 0.0]], "biases": [0.0, 0.0, 0.0], "previousLayer_size": 3, "layer_size": 3, "activation_func": "leaky_relu", "layer_type": "input"}, "Layer_1": {"weights": [[-0.15401479677918406, -0.1810943459882203, 0.3502182502764407], [-0.24197714643916754, 0.2616333445181039, 0.49019124978043027], [-0.15545584050197248, 0.6580390300403637, -0.3690942458366906], [0.1533280845338595, -0.22158329555874387, -0.20338919238496025], [0.27496197691633506, -0.4200470749195944, -0.06798310653683821], [-0.07441861246073846, -0.005962700500831644, -0.01873389779960885], [-0.07660929821334032, -0.14169486875626386, 0.17728363077220735], [-0.0018504247026159605, -0.007333085384360566, 0.00272666605109654], [0.024912768273981076, -0.4077216096961423, 0.1894046034109471], [-0.20097013091575472, 0.10673596291465136, 0.4396288308454448]], "biases": [-0.04376479226916315, -0.02096516254225142, 0.052728985856174145, 0.1375298571065184, -0.07391241031512098, -8.068158027234688e-05, 0.10429702507133334, -3.5736560922984626e-05, -0.038849240147260496, -0.04306640322856603], "previousLayer_size": 3, "layer_size": 10, "activation_func": "leaky_relu", "layer_type": "hidden"}, "Layer_2": {"weights": [[0.3666383869030253, 0.18366108368013578, 0.19262880479553973, -0.8126819915158883, 0.21529559049033362, 0.06089542301841121, -0.37843185092934567, 0.0006582970197544564, 0.053346185973809614, 0.05300591919830157], [-0.11942615977437092, -0.23319160717320642, -0.01959594661735992, 0.18675791791524057, 0.016726872226877302, 0.001496002315974335, -0.24603922303624634, -0.014752697682048335, -0.2355925717608656, -0.16575147148639122], [-0.19816455072255396, -0.18572653001494868, -0.23730220246667058, -0.6144795194205293, 0.2821458410606886, -0.01783320950131842, -0.1449470327979889, 0.016684702116751975, -0.035164322924537965, 0.03104009866902124], [0.13914578816449857, 0.04135943320043013, 0.04331132787724211, -0.2348069483085551, -0.03944383241413346, 0.021454001300632127, 0.003981178478888919, 0.013923657694635676, 0.023950940171639654, 0.08050694315217426], [0.15831155721153475, -0.013843772007506814, 0.06813766765314892, -0.7221496038286921, -0.045908986055015755, 0.04092407791792375, -0.20482348525358832, 0.00031155136241870103, -0.0018752422296649026, -0.04733193518102748]], "biases": [-0.317350669744272, -0.10005799404645715, -0.08468725560136359, -0.09618568701026628, -0.24652457517835608], "previousLayer_size": 10, "layer_size": 5, "activation_func": "leaky_relu", "layer_type": "hidden"}, "Layer_3": {"weights": [[-0.2076842679587378, 0.37255523633270343, 0.24584242356580355, -0.18196942968381996, -0.15787297063390968], [0.2081133113370802, -0.36984507403709665, -0.2453477070833276, 0.18623479200860057, 0.15690385661449574]], "biases": [0.310832429275414, -0.3171880561625568], "previousLayer_size": 5, "layer_size": 2, "activation_func": "tanh", "layer_type": "output"}}