{"Layer_0": {"weights": [[0.004146048548922402, -0.002253744224788001, -0.012128435796369012], [-0.0033328742063037614, 0.01816280483295452, 0.0001661956152334191], [0.009900755092726444, 0.010188670834860641, 0.01075559177508388]], "biases": [0.0, 0.0, 0.0], "previousLayer_size": 3, "layer_size": 3, "activation_func": "leaky_relu", "layer_type": "input"}, "Layer_1": {"weights": [[0.04129942926912494, -0.017678189963459722, -0.05285145848554959], [-0.08292985297505538, -0.28664657402680016, 0.4688877348564788], [0.03127399402269708, -0.012863210737857091, 0.23205811366743537], [-0.1610670717804714, -0.024437995477854337, -0.02936679392773053], [-0.17947630548612495, -0.011881107129926863, -0.033159964571479204], [-0.328414271039022, -0.02007560365112868, -0.06059727730665258], [-0.1624635753584899, 0.7412095602996724, -0.45960199199331236], [0.0664929271151776, -0.04202564811863999, -0.11110258095667866], [0.0031986088704895263, -0.012565756775141282, -0.005546187018981812], [0.16214749078294444, 0.3432440869599357, -0.24316059058979533]], "biases": [0.04307798764243436, -0.0792633748878594, -0.07921454670968013, -0.00032147469937167367, -0.0003530443597611285, -0.0006657308203820007, -0.010384001776997694, 1.0610169459392491, 0.0719393756012269, -0.08776705895859369], "previousLayer_size": 3, "layer_size": 10, "activation_func": "leaky_relu", "layer_type": "hidden"}, "Layer_2": {"weights": [[-0.21214943399687544, 0.20806811287998, 0.08772288348788472, 0.018393725343234687, 0.037697588605349414, 0.0715830171773878, -0.04869943216820733, -0.5854987664053768, -0.1589736938802871, -0.10297932705217334], [-0.45133507315039717, 0.038028707555008326, 0.1823572826638923, 0.09921488201793824, 0.0959255160417273, 0.1790917264730814, 0.675443625444855, -1.445266203100848, -0.32853440413646007, 0.20172309701957547], [0.26255877684941165, -0.0955494399062665, -0.0855777158462853, -0.08023413676286936, -0.07038860989691334, -0.14777545104900833, 0.12228746683271864, 0.8815048481039598, 0.14556254354923698, -0.14853834219575784], [0.2209231367480861, 0.03315643609612766, -0.07660318915386397, -0.09981592199511176, -0.12253097425467131, -0.21378984201605475, -0.32219814912084166, 0.5470450737527518, 0.001073599369772192, 0.005762806888240841], [0.11923629825120419, -0.05949520317809792, -0.03395181003584665, -0.03430600146114082, -0.05782802098473795, -0.08791873996302312, 0.061089328213190346, 0.3059671035283744, 0.012918796345372671, -0.058014618058367134]], "biases": [-0.1675452804659675, -0.4209071441571194, 0.3780590290772293, 0.3916484435411544, 0.12150938079620016], "previousLayer_size": 10, "layer_size": 5, "activation_func": "leaky_relu", "layer_type": "hidden"}, "Layer_3": {"weights": [[-0.20550073574912575, -0.17095687095323792, 0.39850103584749363, 0.5175293065110192, 0.3651662054828126], [0.20519742877031044, 0.1706322242984183, -0.3995857879007388, -0.516622114029652, -0.36382785929953776]], "biases": [0.7746560940713196, -0.7718445974443552], "previousLayer_size": 5, "layer_size": 2, "activation_func": "tanh", "layer_type": "output"}}