{"Layer_0": {"weights": [[0.0, 0.0, 0.0], [0.0, 0.0, 0.0], [0.0, 0.0, 0.0]], "biases": [0.0, 0.0, 0.0], "previousLayer_size": 3, "layer_size": 3, "activation_func": "leaky_relu", "layer_type": "input"}, "Layer_1": {"weights": [[-0.006558049988254989, 0.06459672544938125, 0.04143843303215539], [0.0006147423698255883, -0.0022557042360465563, -0.007381932447019687], [-0.00624090953367724, 0.04367136847953221, 0.05358730763985057], [0.1048136413692709, 0.008559465164708657, 0.02235354242551157], [-0.017367221093828003, 0.04657969609776634, 0.05220742190227368], [-0.007603882257185226, 0.0067739515390171975, 0.00015264409774844254], [-0.018403109706552144, -0.0014084023935808977, -0.005796467567958774], [0.10710718849586603, 0.017293312709384705, 0.021429986759951565], [-0.010220917003344938, 0.050370181119875033, 0.04471008181389535], [0.0981553296938029, 0.09136425610235435, 0.11837377372880016]], "biases": [-0.000607418665005152, -1.7015072892822204e-06, -0.0005656310517972933, 0.0008524355496275064, 0.00025414368065540733, -1.8504308636027215e-05, -2.847642355897399e-07, 0.0009095782662979008, -0.00012013904834959395, -0.0009741562883965524], "previousLayer_size": 3, "layer_size": 10, "activation_func": "leaky_relu", "layer_type": "hidden"}, "Layer_2": {"weights": [[-0.012527085238493196, -0.0010260916964352639, 0.004743089340719632, -0.01110016298737582, 0.010620766039838442, -0.008974259706828008, -0.007325353494026472, -0.01484542734107012, -0.0076167382431829665, -0.015230026784998043], [0.005853844799362208, 0.008073643794630063, -0.009324154964596165, -0.0049655548841288566, 0.0020969442862746146, 0.00973552241458617, 0.015317910464872865, -0.007789513624949277, 0.0019374132683486482, -0.01120641812974698], [0.12013465183859721, 0.002651649946701766, 0.12601476857137997, -0.10060460803202868, 0.10342507516183128, 0.0015875158560547875, -0.017302755186763465, -0.09498829943800406, 0.1233072233091528, 0.22016856248639263], [-0.008049348075105522, 0.002932487565418775, -0.014901552007547916, 0.11136088972649054, 0.002965385848623731, 0.002678209890271171, -0.0024874370159873736, 0.12073129283976132, -0.004583152731760786, 0.07626199901510367], [0.0023859223266413736, -0.018424816156582473, 0.0049724302026870355, -0.008658132971643445, -0.02992143453889041, -0.008643078162253862, -0.00527475494434962, -0.011917447617426247, -0.0013734992140175054, -0.01001292723557983]], "biases": [-4.097943907865191e-05, -0.0013841533502164196, -0.00029449085862207243, 0.004031013917186431, -4.4271907227395466e-05], "previousLayer_size": 10, "layer_size": 5, "activation_func": "leaky_relu", "layer_type": "hidden"}, "Layer_3": {"weights": [[0.0030268693075271007, 0.024670093018084097, -0.23580797137656628, 0.11592194382079095, 0.014007198704510816], [-0.015895219350521864, 0.005054692625399608, 0.2357021691212639, -0.1168494017774246, -0.007091522926492354]], "biases": [-0.20665827224624864, 0.21098345411206415], "previousLayer_size": 5, "layer_size": 2, "activation_func": "tanh", "layer_type": "output"}}