{"Layer_0": {"weights": [[0.0, 0.0], [0.0, 0.0]], "biases": [0.0, 0.0], "previousLayer_size": 2, "layer_size": 2, "activation_func": "leaky_relu", "activation_params": {"alpha": 0.01}, "layer_type": "input"}, "Layer_1": {"weights": [[1.7543954246356248, -0.49196794379549447], [0.3248371068845505, 0.7801538216173554], [1.0312565699057614, 1.932959277930664], [0.16598917852381564, 1.1903076559075714], [0.4103030584891799, -0.09289980535275352], [1.8336638495611142, 1.4015421782521014], [0.8348217847099019, 1.5851100179840076], [-0.3395894097346653, -0.23900036516913511], [-0.37090435902500607, -2.093068636790475], [-0.11428081766293655, -0.1536173338173148], [0.7018655659054809, -0.1890212817148095], [-0.7781675995761899, 1.8329434236052198], [-1.0982374742890186, 0.38573968763753985], [0.30557308397570204, 0.6235122581151884], [-0.3731080218650513, 0.18723607996331945], [0.8578819532548895, 0.24392735555584547], [0.7986975451319497, -0.7871848600762389], [1.4746585674827495, -0.2934333954630245], [-1.0202306937413825, 1.3066112492698023], [-0.9196075404986144, 1.5672488784187057], [-1.385611691363505, 0.37527690768387023], [0.6332896189887842, 0.9925596636964683], [-1.1954600950639822, -0.020376373623996146], [0.5269230306668042, -2.2463406622939273]], "biases": [0.25646958158693567, 0.24636965133956196, -0.36665722222667013, -0.03057065565566502, -0.09367237587701613, -0.40092672002155055, -0.06115491517610887, -0.04073295502312459, 0.00626467995131905, 0.05011840867785362, -0.011959083550493582, 0.004909273560523517, 0.0830412597124407, 0.13776025013143978, 0.03179757719322784, -0.0057759907874298366, -0.11019659585902451, 0.18406542184987176, 0.05362563727181957, 0.10613422894778415, 0.07711958421057712, 0.1330097344049176, 0.060470899877973064, 0.15174799045528933], "previousLayer_size": 2, "layer_size": 24, "activation_func": "swish", "activation_params": {"alpha": 1.0}, "layer_type": "hidden"}, "Layer_2": {"weights": [[0.4038249812800334, 0.034067307083741165, -0.20313570957905375, 0.3057082667804942, -0.14085703634448044, 0.281978659538441, -0.473946963727241, -0.3829367181779784, 0.38321543140322833, -0.09705624864741003, 0.32328888404431877, -0.3239120287983481, 0.4242965058315745, 0.6147084344631544, -0.28813400404962713, 0.34837988688154775, 0.32102246561837233, 0.770005291321804, -0.5706283806457716, 0.28993216209303974, -0.074832042593585, 0.684547499567713, -0.1327784891498413, 0.5255074137958425], [0.14027655908922163, 0.7704244360888669, -0.3379481946100998, -0.2506881157387101, 0.912846468646865, 0.029523617447288587, 0.06634778825772424, -0.5240827207993405, 0.05138843501964213, 0.09402051246313656, 0.44247849675337764, 0.24658680114178966, -0.5695238807608805, -0.0036842295117732395, -0.2044435730141895, 0.2427089777616437, 0.7593611248179768, 0.1459707582720376, -0.12485322329020743, -0.45921817925493574, -0.4064909123328832, 0.44055821904488873, 0.27942759048741134, 0.30343158226478467], [-0.04223911541916624, -0.769139234737076, -0.01799162059137587, 0.28053578794989614, -0.006315667412344593, -0.1044802135148665, 0.4597727110586569, -0.19154120824768361, -0.23102270073868983, 0.2755322834652571, -0.24013319654779924, 0.07579402441961085, -0.19535420538361328, 0.42535952333516175, -0.23885647403809349, -0.04394695887652312, -0.06786571370893076, 0.2233405715776152, 0.0830601886324975, 0.31575566539035554, 0.3334441457087138, -0.03864407260454236, 0.20644820675097383, -0.15640788348664703], [0.1855659341890226, 0.04262403147819064, 0.12204069910406833, -0.10195587532836346, -0.15658774957955898, -0.2714024746801355, 0.08218812938180846, -0.012464079605346519, -0.6196377223630287, 0.14251799042873295, 0.11493834169784278, -0.3184064770698283, -0.4824825663928907, 0.0066890593849621635, 0.22096757103561668, -0.174134467891541, -0.1458368058252338, 0.15242311942009434, 0.09094516509823126, -0.330076631533686, 0.10050442096975196, 0.4022561737843228, -0.187915549291192, -0.4861184036120549], [0.19026190407515828, 0.0948624261493206, -0.5746771488250404, -0.05294363687841106, -0.24791540609984175, 0.050075472048660696, 0.06394699816564015, -0.035443355946753796, -0.21686719222617418, -0.06365966611329645, -0.24258755278279878, -0.19939499049882475, 0.005124469263185378, 0.0434525481801876, 0.34823101255113514, -0.2895510117820688, 0.1501795860983449, -0.1990119410665007, -0.1706450706466558, 0.5168459132122399, -0.19067834260397512, 0.6901090416165189, -0.3531768258358331, 0.1445750600806574], [0.1265371072181004, 0.11246625604056483, 0.0028858338104872628, -0.5101628305000293, -0.06223322359816062, -0.43931596655501687, 0.19678315369503474, 0.1389766531660973, 0.183299477382563, 0.1781178129303901, -0.532179318155019, 0.39482849601792247, -0.07866328251891734, 0.5375420840064066, -0.12236916732629295, -0.11370980443459625, -0.15647674537104828, -0.007562120896774873, -0.2897652191911284, 0.1367378602104753, -0.2635949990892599, -0.19986733222295844, -0.310062567131548, -0.053868726455912466], [-0.17321777471363137, -0.4240745867121001, 0.283271199191826, -0.29531600002955527, 0.8100371090408792, -0.6231776850039307, 0.12340513914536222, -0.13052918615603476, -0.10103321975988935, -0.23723632541846162, 0.19342086599559738, -0.16135296209392114, 0.3851676029630515, -0.10439801550122553, 0.3765835227152487, 0.7057109826169408, 0.41912690056420293, -0.24154004685495015, -0.11654183476170181, 0.21423173831658845, 0.39126852097904435, 0.4231931252495531, 0.1777747357249537, 0.2187678421689787], [-0.416195433482393, 0.19011016274340925, 0.20485442875571347, 0.16445825778778342, -0.130446931628216, -0.6846531670710716, 0.35524223680288375, 0.06781383383257135, -0.42548463452501006, -0.2966272328530395, 0.19156334531351246, -0.35785410714885674, -0.44045374216869465, 0.3569352180569031, 0.5779050041734407, 0.2326562883542239, -0.4077794730517406, 0.3577482469015503, -0.36559857833499765, -0.7899318107421622, -0.4618168869847205, 0.7147918569942622, -0.5164166242886101, 0.4797604582233434], [0.04047298829122652, 0.11658583329797859, 0.1390770156730365, 0.3326658584607039, -0.2738180081549289, -0.18547158663793475, 0.4586935587527223, 0.42948711998320854, -0.03303319813062257, -0.08758810941837898, 0.4041030722430338, -0.27921583418996504, 0.03653360555190865, 0.09815449224721205, 0.021934676290812694, 0.13026015833976767, -0.20130888303347694, -0.03543471780942267, -0.16644673108125282, -0.7530246792655513, -0.4894478120390801, 0.009616853626693515, -0.040421914222768945, -0.5109899664800467], [-0.15835373316469933, -0.34499926514269924, 0.4909921344092527, -0.03613302874176568, 0.09116512823671721, 1.0014952803214352, -0.07906367260917056, 0.06056509855866769, 0.3160168056671568, -0.2308118487886513, 0.3973972018365138, -0.05880381624938758, 0.4394251869376727, -0.27708280689510656, 0.0542205891893792, 0.10246293092234654, 0.32097283063928134, 0.06805150609983392, 0.6818734106727998, 0.45738975038564184, 0.2553122799400746, 0.07769665487081376, 0.057830166300191624, -0.3087049149780932], [-0.403177526875433, 0.2206693222192554, -0.014846576340335291, 0.4559354419179598, -0.08575663698099055, 0.029856878589679364, 0.03215512145738566, 0.41295098109445383, -0.21845539725800245, 0.2019632715264506, -0.025390804925045442, -0.002046613547426327, -0.43054814744277536, 0.08225925313077571, 0.08259015058302883, 0.2604083444377481, -0.4864527500501369, -0.32359294875566846, -0.23221301287942223, -0.3050362767721365, -0.5046070508235315, -0.05612023697030953, -0.08290338012777136, -0.23554821093480133], [-0.0888621716601004, -0.24291202607854243, 0.5485777794611941, 0.4065442703738705, 0.07320925648400774, 0.19158262668377868, 0.006937724164174176, 0.32174572858214295, -0.0012799241568046313, 0.10124782445390025, -0.19570430568116248, -0.5360586261863185, 0.253452883649252, 0.4614943536622293, -0.014675741844566409, 0.2384461443562307, 0.0980216867054052, -0.14048247260359437, 0.1584139810967067, -0.05989079153717715, -0.30408812176289074, 0.29543800960165983, 0.1736298985287267, -0.7493603497133676], [0.3682266181729815, -0.08032170628048596, 0.0947110403362193, -0.31905857243460434, 0.1496930060671467, -0.5748689350614951, 0.08770443524418442, -0.3904758625700001, 0.1181446921992841, -0.30922988786177175, -0.08037212510694364, -0.32690803003339985, -0.19603190584955052, -0.5001090971346743, 0.27714743600756164, -0.1252588984276499, 0.449663885925933, 0.7879688729427986, 0.1848284642805427, -0.2896423499861589, 0.4308984700060445, 0.06744416622531715, 0.1398066253463805, 0.32606578132655356], [-0.18863483342608553, 0.13051107616886576, 0.2942576261070104, -0.30617312258925283, -0.03849362093456329, -0.08300510765075529, 0.2671394984917869, 0.27908677610626487, 0.0063151320627199544, -0.40104590507253557, 0.21379042339032425, -0.12510011148632416, 0.05167192469525044, 0.06363035079539577, 0.2762775969416217, 0.19750222856591146, 0.39435134748300876, 0.06871903131078234, 0.03320949647554068, -0.16093769915073936, -0.04563595609693791, -0.17559608627082973, 0.20601046358795733, 0.4431910755194743], [0.15349093199033087, 0.20079211939577624, -0.10987109177418429, -0.11956461792111195, -0.46817259165327363, 0.22470274231873028, -0.12552447154613625, -0.13943656818160224, -0.2019386649646712, -0.44693095827447155, -0.4870513382269907, 0.1041377228220448, 0.2667358583513732, 0.2251073877449869, 0.46643045439445285, 0.2158527028850761, 0.4398249056305161, 0.44455799833545817, -0.19788777118635797, 0.0762982850248619, -0.0844458712047023, 0.1498454832396549, -0.5531299014256006, 0.32402452898020473], [0.3310976952154939, 0.3418524397943451, -0.18681568026867637, -0.18448742850516744, 0.09915259768222107, -0.2133292074619252, -0.13590520799245126, 0.2537638862333113, 0.08933952591433632, -0.10166382082600862, 0.18140276494473742, -0.11494248138300091, 0.2968780026167932, 0.12915632879189007, 0.19731677064035125, 0.13802189063840634, 0.04355322015116743, -0.06331731310890107, 0.19126413913646542, -0.06680180287209488, 0.18257940500310643, 0.43894495625596486, 0.022796272031196836, 0.26821270716603435], [0.4108660787237763, -0.3410246894600191, 0.06896391917488558, -0.11331883431972631, 0.3179345108669209, -0.05260411921961096, -0.185911785006642, -0.15231027916173492, -0.26223595275021705, 0.44921298258105924, -0.06910196611712958, -0.24423880431444334, 0.1961922749628658, -0.1212766022487917, 0.09735560801604173, -0.07272526078986566, 0.13063154748553585, 0.10778229972866904, -0.3186256536137607, 0.1606094089886207, 0.18410174464972165, 0.19359953066081534, -0.08403311035085972, 0.18093226850256056], [0.18569001886322742, -0.40220659880730736, 0.3105082775208569, 0.11102427097689054, -0.22854423360674253, 0.2589536835856893, -0.26463343650705096, 0.22380820750544025, -0.10786000293664037, -0.39880889604898123, -0.2900290870978828, 0.10157492605561198, 0.5459869505771732, -0.05078993541310677, 0.15974449451121472, 0.003781131264696679, -0.1312843710581055, 0.2679835214757753, -0.5592892706994712, 0.26284579393859603, -0.12697110399642267, -0.46801094163996704, 0.6140370782761974, 0.17923762704981291], [-0.09462975513988656, 0.028048832545046695, 0.15142945501846147, -0.33740516240026847, 0.006226145153244095, 0.47648615028258684, -0.05804928774590603, -0.09534477929559987, 0.49638531965092436, -0.16770493146008109, 0.2185622177248825, 0.6098588650847558, -0.10744351312174409, -0.20094689216432354, -0.10168042176807242, -0.04846091282043149, -0.18767621000928966, 0.4015503517343176, 0.15507058946426075, 0.17823189073916934, 0.07256717686849032, 0.07174103328538207, -0.17796938618446015, -0.3828804697528676], [0.11206530309297828, -0.1784046165545768, 0.1833402277447333, 0.09412526558831563, 0.04460155224145459, -0.08081770193510052, 0.1917539156252423, 0.035498030753663666, 0.3267200458683793, 0.2531409770222216, -0.4368143622384545, 0.19465852304708667, -0.09487886611096451, -0.18505244315452146, 0.2857492441317846, 0.2511539461113026, -0.14686498915692248, -0.903541760165934, -0.29035471915892835, -0.4639667236346455, 0.13244130832672846, -0.011970935820787289, 0.12767174979424273, 0.333977043770409]], "biases": [0.25892445261499114, 0.2880725741929819, -0.1615660935370689, 0.07946241514411718, -0.07329522167506053, 0.02262116624804187, 0.02872840651892727, 0.2290567307692457, 0.22470157882684808, -0.36396598522029966, 0.06949674993111006, -0.008543064065699034, 0.032077756954938016, 0.05690776912599799, -0.0033296882700884762, 0.06436594720067539, 0.027934850873403073, -0.22718522362069785, -0.21388569219788692, 0.028328842355831062], "previousLayer_size": 24, "layer_size": 20, "activation_func": "swish", "activation_params": {"alpha": 1.0}, "layer_type": "hidden"}, "Layer_3": {"weights": [[0.2055939426606774, -0.09654795853793312, 0.12088398344124139, -0.6412769178602319, 0.49222136165227887, 0.5514399538258488, -0.47042618723325913, -0.3808107512705233, -0.35630867194447036, 0.9802945292677792, 0.501540249032004, 0.5591746897276784, -0.19423405157032372, -0.04623565162550602, 0.17515564335862646, 0.2633242169554955, 0.10975578208645867, 0.7888708595975054, 0.8508270683798261, 0.37305605815795156], [0.36379707960873986, 0.4634054890566623, -0.2614280046810239, 0.17357092645175876, -0.1959589410720091, -0.5707289042773759, 0.25216848262396024, 0.4528686965807491, 0.2656364122908282, -0.8654399732714843, -0.3592878881683347, 0.20362890891209384, 0.029115383586488113, 0.3533164267634016, 0.16612758733521268, 0.22376730800675954, -0.16776328656878794, 0.38103545253234933, -0.3781122399732846, -0.2410864259691639], [-0.25697061993244225, 0.14631538618435716, 0.3898971606649204, 0.11744260214653317, -0.4532603783827238, 0.0758083306591144, -0.15925756866135468, 0.4468606001570514, -0.384994660944504, -0.04447930133535596, 0.11448627338829215, -0.17027680824450994, 0.2876642677679946, -0.29099972728684576, -0.8590059272438645, -0.5700602843421799, -0.3916903255332031, -0.09730391969480633, -0.04692663905533477, -0.2031032562838943], [-0.6196384779794217, 0.5016023164230525, -0.15060299048646375, 0.4065353903578832, 0.082792629472091, 0.5448713502017078, -0.14894157224200485, 0.44714442922490455, 0.23045775651210557, 0.2190062409872381, 0.14436620747249476, -0.1584904659150309, 0.3199801486548981, 0.13846921018199204, 0.10015740250864022, -0.4089177142972871, 0.39515533591531965, 0.33596874831867807, 0.08123405158238346, 0.2572222294321835], [-0.281898055010551, -0.30579228476642734, 0.035369595478840894, 0.3697144395148764, -0.3003096738919955, -0.35300486829326194, 0.39254646218207606, -0.17318367589599093, -0.12386775794884769, 0.005369488855766091, 0.11701507422391268, 0.095130699841629, 0.023089614945242982, 0.21655135946885465, -0.21436605261243705, -0.10601291382576053, -0.31304738043972474, -0.27199917529032047, -0.2959347718460738, 0.32246431641052675], [0.1399541625722962, 0.03361658509548674, -0.11274697182217137, 0.22693306578024294, 0.5041017804445862, 0.12274264932864141, -0.29744347006859234, 0.06382470815309324, 0.09829618018573362, 0.35122052656922276, -0.21718500785913009, 0.09900577628166937, 0.036688667496669214, -0.17693431762851164, -0.05570122446935768, 0.2725810183326566, -0.31995904857432694, 0.3270436173421657, 0.620115854964286, 0.17604151210214247], [0.23522588304117628, 0.46283169462730767, -0.25706647450710635, -0.24984786443725657, -0.23656558164362362, 0.6365366856185549, 0.1482788613516194, -0.15911425962680037, 0.6149333453243498, -0.7185258762104552, 0.35465808640707525, -0.00275855945851414, 0.1294239673024665, -0.2904414014362318, 0.23440965385261273, 0.47120754904748674, -0.02331516083097509, 0.1813392691871074, 0.4199792358867045, -0.4014516738076067], [0.49122858227699684, -0.1518126421812977, -0.05098526713658096, -0.0727649125571138, 0.4447735209756573, -0.09136947029810268, -0.1757245347384843, 0.1749820989889007, -0.5057520660302457, -0.04968933227702534, 0.43321428014025226, 0.31856522587892644, 0.19094776153726858, 0.25174403684266766, 0.02880792064768735, -0.1518465836082012, -0.40518232555437417, -0.0316311538545896, 0.13866267546096034, -0.2736285537292932], [-0.22581874899661364, 0.1529161294787696, 0.4246767042442764, -0.10911343288516206, 0.3751589211495732, -0.13369576519370283, -0.5349404310254832, 0.4971623429940385, -0.1306825463811321, 0.16181517194716447, 0.1969295258324653, -0.05937494633290687, -0.2051401729793925, 0.2009785560948307, 0.0701827091282571, 0.1693777081260905, 0.4749097425132506, -0.021192772106089827, 0.05449493990150315, 0.5287923019231042], [-0.11567315580575746, -0.5636197426608168, 0.12672424478910477, 0.23515789998979303, 0.02315961223397616, 0.09218238109807991, -0.5569236976466757, 0.08061936353364427, -0.3450073399514408, 0.11015303567012678, -0.07661406699883208, 0.4871104686006287, 0.10070945138899405, 0.0882917877995696, -0.1842081078078274, -0.20258195719857625, -0.16758197070485645, -0.2255396730304991, -0.26170915224094515, -0.2886636961189828], [-0.05406869257756859, -0.41076066663829514, 0.1602864653048468, -0.18104477031441019, -0.9291808759263442, 0.2753763140782355, -0.510289510056163, 0.16439987698317804, -0.0760413067884517, 0.24673761725877946, 0.14077603975615552, -0.23751909514470423, 0.03841020727686153, 0.29526601449813966, 0.04245922473835698, -0.14193529776018066, 0.609353895482022, -0.4422572068375074, -0.024447221299874946, 0.4856496045888262], [-0.195527829481686, -0.030661391115760644, -0.43682933207596, -0.333386429045959, 0.03250639480598578, -0.1573103945966202, 0.013883959240012013, -0.05589490579014653, -0.6197009490303118, -0.029760825425178748, -0.05672932954009906, 0.03510997189363848, -0.03182407956040301, 0.1205171211019546, -0.13834447611388564, -0.2305369141140299, -0.020581853468146016, -0.46433327679423314, 0.5675052530118029, 0.31165500939656077], [0.40924189180394255, 0.10885326620885842, -0.13227218841359806, -0.2612059335764142, 0.19545886187128642, -0.0502883488901757, -0.029970755972701844, 0.04944925635901096, 0.0800694914386566, -0.010229353528887349, 0.0032083440775411373, 0.5379277354713721, 0.3019265746843203, 0.13378235468792238, 0.3876279778650924, 0.40045467835669285, 0.6742889990998017, -0.2327264245247397, 0.2805444830757922, -0.06217668078428911], [-0.5639861075212378, -0.3438061301491814, 0.02502140872137404, -0.35882859120907473, 0.3551184512151812, -0.08738749129429733, -0.08258155114720381, 0.23517254947483565, 0.03174443181515726, 0.1648629907972516, 0.35390639934675117, -0.37754952488740035, 0.624991030233388, 0.38838637482556376, 0.17329288473318713, 0.3985844994882027, 1.0061822018086817, -0.1962910726447499, -0.2308240967982663, -0.3078171609045332], [-0.13911655128587566, -0.14819293254231142, -0.07863020345656059, 0.3714712692229157, 0.2667125521722573, -0.8755180720685128, 0.6178424641171572, 0.12853276851233897, 0.9968589928222455, 0.5590916778099506, -0.016704661548010254, 0.3237495224360691, -0.20881942387774388, 0.3607773571856467, 0.6399481530939451, 0.6912411624655982, 0.7219335129679346, 0.12369230806237713, 0.10356258761773776, -0.37794883544246827], [0.074779214674021, -0.019376771867623058, -0.24705117036724653, -0.4646612146808034, 0.39398723098591243, 0.01949708129130333, -0.18646126023515788, 0.5258419989718129, 0.5132158113865721, -0.3273964665932734, -0.10590067221833212, 0.17954175321621463, 0.40968098787559204, 0.00174907648181206, -0.4390812670323473, 0.05372214324907077, 0.1840469303539644, -0.352843653502787, 0.07010291329175246, 0.5409510880948679]], "biases": [-0.3012804889018564, 0.42617942866196995, 0.015490085626023675, -0.05064427163514456, -0.011975103102450844, 0.06478369586944614, 0.06678505524496517, -0.013728690612422658, 0.1103788067237509, 0.05316806534413032, -0.0007777653062620316, 0.010067597898277499, 0.18827321163705543, -0.022956795727804933, 0.11175009726459792, 0.14402603157433536], "previousLayer_size": 20, "layer_size": 16, "activation_func": "swish", "activation_params": {"alpha": 1.0}, "layer_type": "hidden"}, "Layer_4": {"weights": [[1.4376337991453183, -1.1467292217819227, 0.13353020223833162, -0.2582735176762621, -0.34849380594463647, -0.47993823860139767, -0.23418695959374292, 0.07575205202336174, 0.003561477955216318, 0.3254783310123729, 0.041036655057410824, -0.051540382893692505, -0.16162964545114908, 0.3860589301101689, -0.4640853521574604, -0.3369386070823249], [-1.3230991917577455, 0.6666390321392636, -0.38459058414328845, -0.1970381938334818, -0.22545286068027603, 0.23350390271804827, 0.2769755298385364, 0.32349035044775615, 0.7097392190724627, -0.8250472678318707, 0.0707649086332495, -0.140689384032709, 0.29796480769957073, 0.33941624331249765, 0.2869534420113882, 0.3594261514942284]], "biases": [-0.26717719553833347, 0.32782046063377485], "previousLayer_size": 16, "layer_size": 2, "activation_func": "sigmoid", "activation_params": {}, "layer_type": "output"}}