{"Layer_0": {"weights": [[0.0, 0.0], [0.0, 0.0]], "biases": [0.0, 0.0], "previousLayer_size": 2, "layer_size": 2, "activation_func": "leaky_relu", "activation_params": {"alpha": 0.01}, "layer_type": "input"}, "Layer_1": {"weights": [[-1.7553968280153645, 2.3181969945314744], [0.30858768896711486, 0.8999618261989181], [-0.9100546760099693, -0.16944196501318018], [1.5691744590852361, -1.4026753545069235], [-0.18982653098514954, -1.851958380979536], [-0.5629743517445106, 0.4031956655262935]], "biases": [-0.42325214821732576, 0.9055435793296414, -0.1855564263904192, -0.20807666004181483, 0.5799195501346419, 0.05007934887749876], "previousLayer_size": 2, "layer_size": 6, "activation_func": "relu", "activation_params": {}, "layer_type": "hidden"}, "Layer_2": {"weights": [[-0.42113384347234084, -0.27386951323283626, -1.4880557203822808, 1.7134517805072225, -0.30029415423616557, 0.15524888694910136], [-0.269784979043234, -0.14604449325186794, 0.8219570632234484, 1.0764178124119927, -0.17294094989846653, -0.9756224750157216], [-0.35557813356455054, -1.2752977038501825, -0.8303498051653918, -0.7403613245322708, -0.24764621313761703, -0.10868926377030991], [-2.1713387337552827, 0.9782782186840349, -0.7056719525829243, -1.4958582814421983, 0.6881576966107811, -0.7262781774671501]], "biases": [0.32349076699058205, 0.21174599268146344, -0.02758394707678223, 1.2339725641986274], "previousLayer_size": 6, "layer_size": 4, "activation_func": "leaky_relu", "activation_params": {"alpha": 0.01}, "layer_type": "hidden"}, "Layer_3": {"weights": [[1.0700960349565998, 0.6475681627281479, 0.6876967780761069, -1.9923211043550753], [-1.1483363944875826, -0.5340189879884947, 2.284072354257499, 1.9818221876628186]], "biases": [1.9218233763175185, -1.8322339708354638], "previousLayer_size": 4, "layer_size": 2, "activation_func": "tanh", "activation_params": {}, "layer_type": "output"}}