{"Layer_0": {"weights": [[0.0, 0.0, 0.0], [0.0, 0.0, 0.0], [0.0, 0.0, 0.0]], "biases": [0.0, 0.0, 0.0], "previousLayer_size": 3, "layer_size": 3, "activation_func": "leaky_relu", "activation_params": {"alpha": 0.01}, "layer_type": "input"}, "Layer_1": {"weights": [[5.958062954495704, 3.7462999572506934, 4.982768956051404], [5.256318322309667, 5.324349760413817, 4.278980643754934], [-12.375863008183366, -4.73770884418487, 3.634311211978468], [5.230331444917349, 4.945262103074777, 5.7979155922640775], [3.751528033478882, 5.1109246099679, 4.471684675290938], [4.791967068677094, 3.1965850401114757, 4.534524181302569], [-12.723341092541347, -3.536951403546802, 13.822502730005484], [-7.8873215342828455, 0.8123735753989406, 19.43597234825108], [3.973979603984476, 4.856134061684063, 6.046455012795538], [6.3240129815227215, 3.40434582660925, 6.193271705215223]], "biases": [4.603928471937013, 4.521260609405495, -6.78989942531972, 4.515207553670761, 4.4292660684509375, 4.533628589082047, -3.9690681317442333, -0.8699037931424021, 4.621892565282218, 4.612186601323132], "previousLayer_size": 3, "layer_size": 10, "activation_func": "leaky_relu", "activation_params": {"alpha": 0.01}, "layer_type": "hidden"}, "Layer_2": {"weights": [[-5.147523057995765, -5.423078293611981, -8.271127093704866, -5.322497002689079, -4.8671477564210415, -4.3988817145957695, -21.323606323671875, -14.154375181364534, -5.226016964736479, -5.35689619402246], [4.738741674025548, 4.36541946810828, -7.059942539719482, 4.644486815993003, 4.122717512715904, 4.5319038721006955, -12.269453260724493, -25.21233215824959, 4.770946235405459, 4.646775726952745], [-5.932477070312502, -4.503876922811968, -8.562587123736824, -5.624655217344679, -4.9687983481307425, -4.9661056184334615, -23.776789809155666, -16.89004045054472, -5.260526443952258, -5.7010979738331224], [-5.109923398283487, -5.801817579828846, -8.034836304501797, -4.810680552342595, -4.866560559452601, -5.006088407980251, -21.416583341020445, -15.43327159858501, -5.379714658488367, -5.127978922199664], [-5.620060901274187, -4.953709084712325, -8.088123510997907, -5.15083250167843, -4.911109591049028, -5.175237146805306, -23.156371882045892, -16.97244123290958, -4.602593603356168, -6.045253709408072], [-6.129858199101272, -5.053997136779523, -9.256147173367784, -6.062363167877184, -4.935734893801101, -5.274049474185223, -21.52725987497997, -15.285874538446116, -5.196270366440449, -5.228510002310187], [-5.523305620737986, -5.63160763410713, -7.8811413525161536, -5.81256007955861, -5.756288405802119, -5.055741173017849, -22.681384100854775, -16.055055915001308, -5.392275587820062, -5.4781254531912476], [-5.325196397864803, -5.04327941132877, -7.952468171743711, -4.655632514373428, -5.544639052320743, -5.834585980970567, -23.523155472234706, -18.177620220196864, -5.256954732031306, -4.898228481260642]], "biases": [-13.091149403769274, 3.5370757633819045, -11.638200433428642, -12.95434584253063, -11.624594525208959, -12.754010685721607, -12.31841041766363, -10.68937893048897], "previousLayer_size": 10, "layer_size": 8, "activation_func": "leaky_relu", "activation_params": {"alpha": 0.01}, "layer_type": "hidden"}, "Layer_3": {"weights": [[-5.7890625981893145, 1.1330090128324835, -4.659388283574614, -5.402298113509662, -4.631027106252166, -5.218018622807949, -4.950065650890303, -4.278541402453897]], "biases": [4.918562841950165], "previousLayer_size": 8, "layer_size": 1, "activation_func": "linear", "activation_params": {}, "layer_type": "output"}}