{"Layer_0": {"weights": [[0.0, 0.0, 0.0], [0.0, 0.0, 0.0], [0.0, 0.0, 0.0]], "biases": [0.0, 0.0, 0.0], "previousLayer_size": 3, "layer_size": 3, "activation_func": "leaky_relu", "activation_params": {"alpha": 0.01}, "layer_type": "input"}, "Layer_1": {"weights": [[0.1927842362281861, -0.10826967103965093, -0.15517127575874218], [0.2509737818278697, -0.1348008358215679, -0.1669992406967791], [-0.011051670413895563, 0.0008342097322818603, -0.0014770226260218977], [-0.0018715462858936102, -0.003781394057565985, 0.001567370044094767], [-0.1031899950220391, 0.151737968272184, 0.12826409128414537], [-0.10876019154727569, 0.15816104447159673, 0.1415622726531123], [-0.11506680175149718, 0.15744703298362564, 0.14830137410361613], [0.04747975887609796, -0.057697961505047204, -0.056720806220042774], [-0.0926756444408721, 0.13571013931592252, 0.11669254802011617], [-0.10211270018771028, 0.13593667574191673, 0.13730378027357354]], "biases": [-0.002055692473997558, -0.0029053789376140486, -4.3026057774755104e-05, -3.239131824799351e-06, 0.009377578841368073, 0.008397247802434334, 0.013126760526010165, -0.0003349223337062207, 0.009390118518617298, 0.007114408708219835], "previousLayer_size": 3, "layer_size": 10, "activation_func": "leaky_relu", "activation_params": {"alpha": 0.01}, "layer_type": "hidden"}, "Layer_2": {"weights": [[0.022457877133632176, -0.01642905466253665, 0.0007472544642214994, -0.011586140455443485, 0.17504955631862462, 0.1393839834118613, 0.22101620939331929, 0.007278490846133963, 0.1837339880105606, 0.13776052699433206], [0.03080968922127713, -0.005892121851269437, -0.007805935351817856, -0.003169882506163028, 0.10666576519846181, 0.07067503024382188, 0.13741547486300104, -0.008619995824196626, 0.10176516879733354, 0.07183462130792743], [0.17275428983127034, 0.1624614324251536, -0.004014780494187946, 0.0012806176586170487, -0.11240826815022355, -0.08350563833042275, -0.11902393315231379, 0.07549920834999214, -0.0663825047188814, -0.08813594858475009], [-0.00798892118084336, -0.007161165291546614, -0.01519204378918909, 0.009630477828297708, 0.0010319123367880107, -0.011897792677110507, -0.004125323749653101, 0.008189220387863844, 0.002413123282224365, -0.019546212553507924], [0.019770044548059498, -0.014504746389706656, -0.014566716977062664, 0.010616974915183064, 0.1865916840512564, 0.14965540553154488, 0.24581525530703527, 0.0059642682252129585, 0.2030928477620822, 0.1521882353370616]], "biases": [0.029200857434005766, 0.01656826702510508, -0.010352071822073636, 4.06157179477975e-07, 0.03236264172751222], "previousLayer_size": 10, "layer_size": 5, "activation_func": "leaky_relu", "activation_params": {"alpha": 0.01}, "layer_type": "hidden"}, "Layer_3": {"weights": [[-0.2525909476882258, -0.1864364950826808, 0.17699010544265917, -0.0027863072452131597, -0.29661726458233373], [0.2836208568931257, 0.16232627506909808, -0.1752616305626529, 0.006138546918386711, 0.2834816594693594]], "biases": [-0.008414837927564972, 0.004143990535080993], "previousLayer_size": 5, "layer_size": 2, "activation_func": "tanh", "activation_params": {}, "layer_type": "output"}}