{"Layer_0": {"weights": [[0.0, 0.0, 0.0], [0.0, 0.0, 0.0], [0.0, 0.0, 0.0]], "biases": [0.0, 0.0, 0.0], "previousLayer_size": 3, "layer_size": 3, "activation_func": "leaky_relu", "layer_type": "input"}, "Layer_1": {"weights": [[0.17133622277813032, -0.19224632196967725, -0.18734453329581774], [-0.01628819666233848, -0.0148381307620628, 0.018473413726526815], [0.011572781031773593, -0.015929774865021507, -0.01475496064660311], [0.047165857797701424, -0.0577285244540687, -0.060134120263906], [-0.13347960527486136, 0.2171502320610575, 0.2009105555675059], [0.08079107034256554, 0.08506384738621928, 0.0995597306258256], [-0.02114816111274313, 0.012244053733559766, -0.0042629234649951215], [0.3834255484838776, -0.1975611249705272, -0.1837359874756372], [0.00030536524177692947, -0.005626194081392752, -0.0006004316398023105], [0.08101234796990185, 0.06761712990489069, 0.08604243194296679]], "biases": [-0.0017810338086142216, -2.4464706218646606e-05, 1.9398907266605017e-05, -5.0586249633046676e-05, 0.0036950645227025163, 0.0009530465443407134, -4.6402606092772525e-06, -0.0029786902741984235, -1.2359456253143802e-06, 0.0007581254575395731], "previousLayer_size": 3, "layer_size": 10, "activation_func": "leaky_relu", "layer_type": "hidden"}, "Layer_2": {"weights": [[-0.01813827258678897, 0.0022547029933586457, -0.005667254674123736, 0.009156466149458626, -0.009757541095325067, -0.006158851853961661, 0.01447214575435819, 0.0029222386829191086, 0.019644453526725142, -0.005748732024048729], [0.02369626283254592, 0.005057656448945952, 0.0014061525829443193, 0.022867510954988096, -0.05452327963959036, -0.01691968114551632, 0.001676363577382039, 0.022441453654596797, 0.008864360006790658, -0.01898617617765967], [0.007332788613981255, -0.00202955283244931, -0.016235988215099723, 0.015771324343816513, -0.009380477215091883, 0.007471009257954197, 0.017150131907748563, -0.009813206382312577, 0.015213896588365713, -0.0114738863970311], [0.04978032336299737, -0.008605504782538447, -0.002523777270387032, 0.02274985816879942, -0.0943735117732787, -0.04703424215206303, -0.003187890293097194, 0.0544153893060805, -0.006238871430614708, -0.03633092847681915], [0.12229441838442254, 0.0031982236388087707, 0.025903353667215783, 0.06815425050176133, -0.31490060102820955, -0.11715843135745287, -0.010002886155503127, 0.27229460159066315, -0.013943334580519022, -0.1079374841815809]], "biases": [-0.0016579263396188882, -2.59771671610285e-05, -9.25490545229913e-05, -0.00046961606068663916, -0.011432969047953507], "previousLayer_size": 10, "layer_size": 5, "activation_func": "leaky_relu", "layer_type": "hidden"}, "Layer_3": {"weights": [[0.021715170443746476, 0.047412029218135227, 0.011261122744092515, 0.09129146714670905, 0.20098080614903513], [-0.016910185145159306, -0.054334301779562076, -0.0021089209540835537, -0.08408648709855239, -0.20179426194076203]], "biases": [-0.571896136223752, 0.5738322960326072], "previousLayer_size": 5, "layer_size": 2, "activation_func": "tanh", "layer_type": "output"}}