{"Layer_0": {"weights": [[0.0, 0.0, 0.0], [0.0, 0.0, 0.0], [0.0, 0.0, 0.0]], "biases": [0.0, 0.0, 0.0], "previousLayer_size": 3, "layer_size": 3, "activation_func": "leaky_relu", "activation_params": {"alpha": 0.01}, "layer_type": "input"}, "Layer_1": {"weights": [[3.6169232496117374, 1.2045143051176077, -1.975420291757868], [-0.22798529237515308, -1.4458220183591033, -1.245516533892885], [1.0462597758412766, -0.19773064801044923, -2.0212916272165082], [2.58465977065861, 1.1556074115620298, -1.7405649384459054], [-0.5642390617851565, 0.2831012292518121, 0.32856857637659564], [-2.5393581026328538, 0.7932138230219176, 1.813619743870702], [-0.8544613207566963, -0.7741800005754492, -1.5414308982202254], [1.484431956753279, 1.5998086650905645, -0.1150373351920891], [3.895037776627355, 3.1374974031489438, 0.9339095196607267], [0.9876513294284085, -0.08628625531105638, -2.338444895105591], [4.386306725016055, 2.8402056003772573, 2.5737606557166526], [3.6733694116792592, 1.152264447206644, -1.9170888215038786]], "biases": [1.4720690762153332, 1.6179567784977562, 2.186906155384292, 0.18297898756641856, 1.5873596574189306, 0.811549053760795, 1.1600231732774442, 2.4131725399610127, 2.4278909559912054, 2.10855753351838, 2.5164621851911173, 1.8185699746953525], "previousLayer_size": 3, "layer_size": 12, "activation_func": "swish", "activation_params": {"alpha": 1.0}, "layer_type": "hidden"}, "Layer_2": {"weights": [[0.8690560678495252, 0.20065752762108574, 0.7148172830212128, -0.32690974549386814, -0.3697023823691579, -1.2309651613813344, -0.954658509408596, -0.5370444472707617, 0.10435431730738715, 0.010107114676825688, 0.10772902810886499, 0.24878781071147296], [1.6663172693681254, -0.5654344807235165, 2.7041829706746734, 0.35205639483664386, -1.1022841616792411, 0.10566709308299413, 2.447384092354543, 1.2823173115061557, 1.8419747380556741, 1.4010199231434814, 2.111183892965427, 1.8828450890470507], [0.9832514311992294, -1.938466801948728, -0.4154651462239492, -0.09981178497828483, -0.8148069055887367, -0.3621487258965462, 0.5627116364300326, 0.6491916489233764, 1.6719611846788216, 1.278122467586448, 1.6051085434207277, 1.0774701922770902], [-0.16422037712750037, -1.9558372908509125, -0.7586363486947295, 2.2399308632185195, -0.6778103889489295, -0.2501415510969444, -0.1746759738073721, 0.25314892442969805, 0.6326519231531302, 0.3202677459797221, -0.26307792850646106, -0.3587622395892632], [0.2203837893409112, 0.041912305305264005, 0.2890989706976325, 0.23113484162693498, 0.21985037576101168, 1.2187454473134987, -0.4968866111885762, 0.31473483443933087, -0.2649290296539676, 0.4635832075192089, -1.4714800997567794, 0.9129081241812894], [0.9379618024069679, -0.5980424529092939, 0.8932073336062094, 0.4382123043259202, 0.025277077651286416, -0.03270626045198589, 0.013581503821860772, -0.8135633977059245, -0.3635358543811248, 1.2464792117352126, -0.28787797876787874, 0.7097876924478983], [1.3455314307948765, -0.6029692089260952, 1.5975875058128484, 0.6307066350949809, -0.9580674051049678, 0.558914134812301, 1.3217488317220865, 1.537808012862032, 1.880396450921306, 0.5767293205882802, 2.0838809562775564, 1.4976722481685771], [0.7368421646801209, -1.3008062043827586, -0.01723399517143317, -0.029894130795227583, -0.5757929904032365, -0.8840180448555526, 0.5516512115437756, 1.6307266989936915, 0.6472232671469068, 1.6647878549572035, 0.39519183931647034, 1.1137440709271742], [2.674045312802939, -1.499802537381222, 0.6891144067143952, 3.7343717750884577, 0.2517773541422609, 1.3633087978142941, 1.0645665323438536, -0.43893536280393847, -0.47815546263104564, 2.5842801408134832, 0.5559331745930555, 2.145920072883059], [0.34327348253018924, 0.06203473224505676, 1.1455300505368828, -0.5889521322510167, 0.12336275081626676, -0.030519317152298567, 1.7521563303953285, 1.6397028843508554, 1.544826937042494, 0.0059729985383666214, 1.541283982948564, 1.0332312499809588]], "biases": [-0.20483879926792103, 0.05233057088101488, -0.16556015187592907, -0.25321158732710497, 0.36459461582084507, 0.2478367749253417, -0.03178837164786409, -0.1937121735241568, -0.33232062536401535, -0.06208469416776199], "previousLayer_size": 12, "layer_size": 10, "activation_func": "swish", "activation_params": {"alpha": 1.0}, "layer_type": "hidden"}, "Layer_3": {"weights": [[-1.358115630445649, 2.5781194652148045, 1.976181093343571, 1.4197708735939252, -1.9380209052667599, -1.8081941410243536, 2.3769814061408328, 2.083830981041004, 2.9989291006084433, 2.273526737531622]], "biases": [0.5012674498175572], "previousLayer_size": 10, "layer_size": 1, "activation_func": "linear", "activation_params": {}, "layer_type": "output"}}