{"Layer_0": {"weights": [[0.0, 0.0, 0.0, 0.0], [0.0, 0.0, 0.0, 0.0], [0.0, 0.0, 0.0, 0.0], [0.0, 0.0, 0.0, 0.0]], "biases": [0.0, 0.0, 0.0, 0.0], "previousLayer_size": 4, "layer_size": 4, "activation_func": "leaky_relu", "activation_params": {"alpha": 0.01}, "layer_type": "input"}, "Layer_1": {"weights": [[-0.3784940525675799, 0.6665610349760441, 0.020197126744862143, -0.696024495567903], [-0.45882584565866713, 0.14325683751773405, -0.22145972953963605, -0.6468227582599291], [0.560554992452521, -0.2213188151007495, 0.8073838349654507, -0.29486457166426605], [-0.316241624883255, 0.19361456243325387, 0.36759319239621974, 0.8250427630661963], [0.08984133086941644, -0.7344240997351529, -0.35427856507717836, 0.17192910109985107], [-0.20509290622578796, -0.5392149408482687, -0.38847876762886574, -0.7307545940853848], [0.34767828544086343, 0.35465263317153806, -0.414487587407282, -0.6390742186754551], [-0.1656390145978264, -0.2127224823334259, 0.7359176093851002, 0.4813532634377247], [0.4470113923586622, -0.7211015388712815, 1.3523849137079282, 0.34491070536541935], [-0.801147357212957, 1.3887005934711296, -0.7375814060813126, -1.1748411415453306], [-0.5448765296047898, 0.6166535841423936, -0.9696786594073153, -0.7266811546142872], [-0.7569923365605086, -0.3262994014870589, -0.23279900475347207, -0.3349945837057758], [0.31192982283861465, -0.23286185044288835, 0.2314087619955907, -0.2740194452861106], [0.1751062216533545, 0.5095592036087929, -0.008363192900419413, 0.2706456050328824]], "biases": [0.9040195623944948, 0.0987703472157987, -0.2763877003589051, -0.1666406483304121, -0.2905160399404171, -0.1912799780124426, 0.3331062183323147, -0.5274792569091703, -0.09461165179312024, 1.2369017718914541, 0.45303399095160707, -0.12035790299622295, -0.30047088853442333, 0.1209015832008177], "previousLayer_size": 4, "layer_size": 14, "activation_func": "elu", "activation_params": {"alpha": 1.0}, "layer_type": "hidden"}, "Layer_2": {"weights": [[-0.29127400386804814, 0.4685875792965475, -0.03690756158553809, 0.4583603037385653, 0.41502397772662053, 0.2711224265124507, -0.1070612286839593, -0.30001630042608196, 0.03290593951179514, 0.47271528963838233, 0.44685374717203175, 0.1962657573252663, 0.25107952394981603, -0.16813323054306722], [0.07641690274287831, -0.5611156657046442, 0.1431043732072721, 0.08062633837270403, 0.023927922947156195, -0.6251747124427197, -0.06965199187206303, -0.3879717668411344, 0.5245316103220805, -0.880154351177226, -0.977421327007042, -0.7352821056494332, 0.12542483139952748, 0.3091459560001802], [0.4954680222224248, 0.2807783883706842, -0.042107044411330945, -0.13469861665635674, -0.24070819389849912, 0.42545333954045805, -0.0863529235413425, 0.25820913045972904, -0.1744275566134334, -0.22705282179642108, -0.30185434255950966, 0.14561642083936613, 0.1698504027270971, -0.4682886094335641], [0.019255014339338215, -0.2985713354799974, 0.05040268269171274, 0.6555793415264122, -0.3605063269472936, -0.41908461116636053, -0.19992617497060766, 0.4043329516225392, 0.589135249808865, -0.7927161956298696, -0.7637684446983889, -0.39874977618474683, -0.13056393864087706, 0.09833068383222503], [-0.021847929491738655, -0.3235136476483054, -0.300243710265735, -0.21177593271202252, 0.17369768164537425, -0.5812257776459064, 0.06747430228031637, 0.30533746199683265, 0.08677390414112869, -0.27811414378405663, -0.5983703178203663, -0.1813878139539399, 0.19347662796463136, 0.4509262878822489], [0.601350356645383, 0.1742603809033903, -0.5582958162290854, -0.24562496076910523, -0.15597661497669274, 0.41856047482131314, 0.09684402234716355, -0.42524228561133137, -0.05664219943315964, 0.7450215813238052, -0.3190058182971482, -0.35120589675449265, -0.5059334902826482, 0.127904540164733], [1.1204993859838663, -0.019303247594337592, -0.4382206689716812, -0.36030721432788765, -0.7613768838480507, -0.5763467864454481, 0.31715927533986166, -0.5039820896944449, -0.7490606908248598, 1.7027303936102784, 0.7962652200565149, 0.033070731426430786, -0.570882164043466, 0.16224373418999116], [-0.19331091206192097, -0.6346201825658786, 0.5661610689433522, 0.19339438437783293, -0.37873123951107435, -0.1215609416206404, -0.5383915117503337, 0.36827621432750596, 0.8571506422412468, -0.979431301407568, -0.8720606990745283, -0.01344149747069312, 0.1572639177911984, 0.015794114907392062], [-0.26544315999492885, -0.3200723465337834, -0.14348594096656536, 0.10043516952393555, 0.039979388608901455, -0.10514690564097622, -0.517979844077217, 0.6583395975784644, 0.7162116453527968, -0.49429563310353947, 0.27904062480935027, 0.19300922860347094, -0.21898789372075256, 0.21263062086321413], [0.41966761024059207, -0.3966633391803613, -0.17854027323163313, -0.15544481788391035, -0.4097405754846413, -0.17401654695290308, 0.4583540872156282, -0.499676968607173, -0.38599385227176797, -0.2061377037778132, -0.057539835284138384, -0.2395461027469144, -0.1762858619580199, -0.43303772407513813]], "biases": [-0.05719407373860448, 0.6547516939501791, 0.022054944293700543, 0.20377461665104166, 0.07846409168618616, 0.27359245334609333, 0.7718512161184721, 0.02388425240211069, -0.2620832238926506, 0.12504375045295443], "previousLayer_size": 14, "layer_size": 10, "activation_func": "parametric_elu", "activation_params": {"alpha": 1.5, "beta": 1.0}, "layer_type": "hidden"}, "Layer_3": {"weights": [[0.39091079725159916, -1.4104276093452661, -0.30948925671300465, -0.649307333500014, -0.433365605105071, 0.5306252755049421, 1.1018366270121895, -0.8561768479297809, -0.3833506341096126, -0.21176522832151146], [-0.36041151131593824, 1.4460050017545576, -0.2747629273285051, 0.5487535181267693, 0.3456425227040768, 0.37724411377987205, 0.08179622379999117, -0.3142615806825954, -1.1240671492786853, 0.5050433174970761], [0.5305445465960648, 0.6328608523834396, -0.4133545205753289, 1.4341861595448409, 0.31345449247752694, -0.8248978417968944, -2.6041868239135053, 1.630215489887951, 0.43202581926152167, -0.586740352516787]], "biases": [0.05119976838403728, 0.12052046187513712, -0.17172023025906277], "previousLayer_size": 10, "layer_size": 3, "activation_func": "softmax", "activation_params": {}, "layer_type": "output"}}