{"Layer_0": {"weights": [[0.0, 0.0, 0.0], [0.0, 0.0, 0.0], [0.0, 0.0, 0.0]], "biases": [0.0, 0.0, 0.0], "previousLayer_size": 3, "layer_size": 3, "activation_func": "leaky_relu", "activation_params": {"alpha": 0.01}, "layer_type": "input"}, "Layer_1": {"weights": [[-0.009018091824779674, 0.020415990894151442, 0.0009728273374809992], [0.06279834771604913, -0.1093728545667251, -0.09712207302034631], [-0.08327746705235631, 0.0705852460112773, 0.15681876658727578], [0.07544846600989823, -0.12999559454460347, -0.11232416340199669], [0.35448962199756723, -0.3007720117231443, -0.10666195461650774], [-0.07138549714784838, 0.10082601844807078, 0.09092904309955972], [-0.00316742375483651, -0.02180478677537673, -0.016901063966125292], [0.46580770457599546, 0.15262552006276806, 0.0974603919571833], [0.003375007256802928, -0.013345856134640736, -0.014105798735804344], [0.05875006243715488, -0.09898505866706118, -0.09136123261060446]], "biases": [0.047758945306209506, -0.014412039149347338, 0.1842693537168778, -0.011875486566031521, -0.06126336756568859, 0.10920463257793483, -2.35802731096743e-05, 0.000950494699390011, -3.0506981982440524e-05, -0.01219907914115281], "previousLayer_size": 3, "layer_size": 10, "activation_func": "leaky_relu", "activation_params": {"alpha": 0.01}, "layer_type": "hidden"}, "Layer_2": {"weights": [[0.02299468069945661, 0.006696053693609695, 0.005328394959385309, -0.004736185398209806, -0.019510776811523342, -0.012538311013680347, 0.008546172752049976, -0.0009562853429096158, -0.00010223363585028931, -0.009851183324254045], [0.20564383676479503, 0.0125167710855723, 0.36137876275012104, 0.020717436705434057, -0.03396164683764182, 0.18516340719047725, -0.005018318707503799, 0.008251395626128222, -0.005243209246663665, 0.02811162172335349], [-0.22330430824415706, 0.06502446636255595, -0.2687112643864206, 0.06219137570189304, 0.12646607376449778, -0.22791882958516074, 0.00836876825743483, 0.11701560560992728, -0.007423615994542807, 0.06578412975647521], [0.5949504512537181, -0.02127913857088304, 0.9501824447805327, -0.025585778100992225, -0.14051164404712677, 0.4808874949024257, -0.0107500765465479, 0.03778389398075996, 0.002168786847785355, -0.015625208431072853], [-0.017916680669552695, 0.0015637100361156166, -0.03083287978837034, 5.779941500575265e-05, -0.06876157838754764, 0.00357071981909214, -0.010119274828651008, -0.05480176233667117, 0.004787635444455466, -0.006383941628175561]], "biases": [0.0006009343351507424, 0.08516077055797386, -0.06065301267085214, 0.3938993045376915, -0.0016845605246858114], "previousLayer_size": 10, "layer_size": 5, "activation_func": "leaky_relu", "activation_params": {"alpha": 0.01}, "layer_type": "hidden"}, "Layer_3": {"weights": [[-0.001420242031497217, -1.2277262558080912, 0.11694653769687938, -0.994292497587836, 0.8447219805555854], [0.04477087251309553, -0.512056644252476, -0.10952553745878861, 1.5706772470953747, 0.04776802311563599]], "biases": [-0.12255619996638692, 0.0900810346849857], "previousLayer_size": 5, "layer_size": 2, "activation_func": "tanh", "activation_params": {}, "layer_type": "output"}}