{"Layer_0": {"weights": [[0.0, 0.0], [0.0, 0.0]], "biases": [0.0, 0.0], "previousLayer_size": 2, "layer_size": 2, "activation_func": "leaky_relu", "activation_params": {"alpha": 0.01}, "layer_type": "input"}, "Layer_1": {"weights": [[-2.2720958473847084, -1.9554495776647975], [-0.9072559251220764, 1.1481164636647267], [1.1031609784643153, 0.8136273850281442], [1.229412751025051, 1.5067852536567046], [0.3785691822131252, -0.5370926340892314], [0.448775232268738, -1.0256708008680593], [-1.049171875191003, 1.4283538530410496], [-0.9890058428340002, 0.4931356140110744], [1.2363428414159565, -0.17880693126721695], [0.19806266754829888, -0.231690585104191], [1.1255949098564109, -2.0359543844109966], [-0.024026467181206254, 0.35024178918378407]], "biases": [0.11088112139492393, -0.022284319767907384, 0.065348809700157, 0.18081804565603682, -0.20104961174350752, 0.1477915465482038, 0.23460238644198983, 0.2574836088945832, 0.46799629845708623, -0.1035574750550887, 0.14369754237189747, 0.009353082369201573], "previousLayer_size": 2, "layer_size": 12, "activation_func": "mish", "activation_params": {}, "layer_type": "hidden"}, "Layer_2": {"weights": [[-1.1356829017633028, 0.48203931678147743, -0.14625723129853907, 0.1467972470620831, -0.04245291646774359, 0.9926134428707682, -0.09401036282985027, -0.2749117093829063, 1.1460744586833553, 0.014775969256840698, 1.6904012028989446, -0.37663447663824007], [-0.47790041106522085, 0.046376791966269856, -0.14231939194668564, -0.21390135535863047, -0.030778494418128636, 0.11637272191383632, -0.08197683770835748, -0.009619781470271583, -0.11959181084152433, 0.1264946352356242, 0.33371135498206206, -0.5607928426561826], [1.234626487027937, -0.40555613888484143, 0.2645398225250098, 0.6972263872673357, -0.1557840933604114, 0.19015745931416006, -0.5415798436811738, 0.3389900977848197, -0.21001999159735293, -0.1275790592901095, 0.14087301390048704, -0.13275963617902345], [-0.20119999718215117, -0.17636789170249567, 0.4885381989722065, -0.18894802090189572, -0.0038472443473170355, 0.290130561262721, -0.534633313831567, 0.18754505344721895, -0.1363048389685664, 0.005906423844397588, 0.025628362245926656, 0.08060807158107272], [-0.09007245375883637, -0.12263526535388239, 0.26330833480772625, -0.5509606000277993, -0.0005570231939604997, 0.03841448385135847, -0.4722557999127369, 0.166526369336929, -0.33469481721839045, -0.2721051708743876, -0.021525879600971676, -0.05958701542991573], [0.7632351165767958, -0.6942946886993769, -0.09537754188715267, -0.27228703963709855, -0.7697773881811366, -0.0012969209254292664, -0.4197917818192769, -0.1416068789037554, 0.0330072146502918, -0.14701646817960293, -0.19221071129964787, -0.4577749240081666], [-0.7615666530855946, -0.4278614246519479, 0.09921614073737173, 1.0132294169776346, -0.02797865365894227, -0.11179233241749369, -0.18673588401963276, -0.30250575567062393, 0.4484959213387953, -0.669911285739489, -0.811944465854962, -0.2807964429988906], [-0.45639196785617375, 1.0107500188479523, -0.6699533445400657, -0.6169317254991505, 0.029646669056823644, -0.2928577915406661, 1.677098779749455, 0.9431905148992705, -0.4092507960675564, -0.21963685037791678, -0.43675676761650994, 0.16608706557416947], [-0.1638421439092738, -0.3970314977718177, 1.3986543454376585, 1.5368593999787952, -0.5580715650640224, -0.5179060304471967, -0.48838384159170994, -0.27931556025499615, 0.23087686247361544, 0.2746433095576631, -0.6833773597920838, 0.40507692629671677], [1.2408047925868557, -0.4947325636456062, -0.5468817824819542, -0.5652183802653991, -0.45616250265315716, -0.13810639413279424, -0.5933431381028434, -0.6520457146768617, -0.9798633576110252, -0.14202698276795167, -0.26806744888891854, 0.1361624709168853]], "biases": [0.259185598456445, -0.024614418515977104, 0.27064561115234725, -0.07544064840356944, 0.027376443493665466, -0.004855208755646619, 0.22991668702156765, 0.48085116664123523, 0.1782019288448411, 0.01174118076333892], "previousLayer_size": 12, "layer_size": 10, "activation_func": "gelu", "activation_params": {}, "layer_type": "hidden"}, "Layer_3": {"weights": [[-1.1304688122947082, 0.13982446119480613, -0.5955889104751491, -0.20822369301987276, 0.14378675310528924, -0.6546107762389695, 0.9713486922116689, -1.4472777720008578, 1.629463876516767, 0.16863184002812423], [-0.9372672087594841, -0.38566411685355323, -0.9002851757135708, 0.07331681564683347, -0.36539366700189957, -0.7687971545866872, -0.5025870788443519, 1.3166692646593547, -1.1779909670487068, -1.1146955079802943], [-1.4678979100184073, 0.24007282423706808, 0.514220569542773, 0.31355133162407506, 0.0225746892723065, 1.2682452036975278, -0.4599991718310052, -1.0887331172853916, -0.3839253073259715, 1.2363573776009362], [1.538813206400753, 0.3241403941477599, -1.0756554726640826, -0.011091508496997705, -0.20212504233259473, 0.3745266079597696, -0.9076961631698179, -0.7472198758770886, -1.418841917493775, -0.9491626043581409]], "biases": [-0.5066697635455801, -0.3105609133832232, -0.49651335947844577, -0.5575036643329288], "previousLayer_size": 10, "layer_size": 4, "activation_func": "tanh", "activation_params": {}, "layer_type": "output"}}