{"Layer_0": {"weights": [[0.0, 0.0], [0.0, 0.0]], "biases": [0.0, 0.0], "previousLayer_size": 2, "layer_size": 2, "activation_func": "leaky_relu", "activation_params": {"alpha": 0.01}, "layer_type": "input"}, "Layer_1": {"weights": [[1.867124529958639, 1.0319934742774663], [1.0050745997054384, -1.1445317618989406], [-1.6935761333161454, 1.492641693750628], [-0.060487322852589995, 1.6067885882278716], [-1.0849268238492087, -0.0707010530472133], [-0.9326118407460641, 0.14436204316646217], [-0.3579329381627802, 1.1958081053939444], [-2.022125557703983, 2.332986874535631]], "biases": [0.06628816715164433, 0.14347244664888256, -0.15311201957291257, -0.25522398103792066, 0.8772895883095255, 0.5704505702534836, 0.232121140815495, 0.2760529162964973], "previousLayer_size": 2, "layer_size": 8, "activation_func": "leaky_relu", "activation_params": {"alpha": 0.01}, "layer_type": "hidden"}, "Layer_2": {"weights": [[-0.316204827994929, -0.23297724056880068, -0.7169056334654246, -0.33092021736953353, 1.1962795320057835, 0.6692043347419451, 0.25291059251745457, -0.38090241519997814], [-0.5092498870003311, -1.0132886849993379, -0.47358508415151723, -0.5374615747945708, 0.8410632505007758, -0.6028408514251192, 1.2006303638034117, -0.260446763220361], [-0.8173054888603231, -0.5314411920908535, -0.9435185917976957, 0.38505360462865323, 0.2279436024545359, 0.4739421351031161, -0.16685828985595258, 0.21804785476824762], [-0.4869254336309117, 0.590218944847245, -0.3209151161338136, -0.3195909960746252, 0.45879211537538006, -0.2725832153475206, 0.3477714906021856, -0.8417465589707779], [0.6996958582565856, 1.099407621044197, 0.7032303241853459, -1.6373108951405904, -0.5513763700957995, 0.483936903209748, -1.4907210400352044, -0.4168609081798913], [-1.0087993808612443, -0.732008398567447, 1.1719984627845863, 0.9156370879471321, 0.2979494246947002, 0.4779170726560389, 0.33965434063419647, 0.8246710925110666]], "biases": [0.6081205410758026, -0.037704101894088064, 0.7680596806646688, -0.07528346103894674, 0.6354021465046745, -0.2957750165359802], "previousLayer_size": 8, "layer_size": 6, "activation_func": "leaky_relu", "activation_params": {"alpha": 0.01}, "layer_type": "hidden"}, "Layer_3": {"weights": [[-0.8546906920974908, 0.16621048352861717, -0.96313715262004, -0.43414805921211824, 1.6896768025016704, 1.3962865492404763], [1.210626200587137, 0.47568536279802753, 0.38199819136690305, -0.7085812386617151, -1.6622428668401499, -1.412295491330124]], "biases": [-2.1771476259724003, 2.1422941939086098], "previousLayer_size": 6, "layer_size": 2, "activation_func": "tanh", "activation_params": {}, "layer_type": "output"}}